solver_type L2R_L2LOSS_SVC_DUAL
nr_class 1
label 0
nr_feature 384
bias -1
w
4.749850626266325e-10 
3.773081638333503e-12 
4.712119603823792e-10 
1.446925754969059e-05 
2.004939199523682e-05 
5.072450161117688e-11 
-3.374385430906297e-15 
5.481750381241765e-11 
4.956673845866107e-13 
6.757923762753673e-11 
2.463332297294545e-08 
1.014824864409481e-07 
4.372719441247698e-08 
-2.783307101605298e-07 
3.220578881885582e-07 
1.424570177326033e-05 
5.69647159084325e-06 
-1.008305139683428e-07 
5.459995409732586e-12 
-1.074391057615676e-07 
6.728733247725981e-07 
7.873867220796389e-08 
-2.314664187750246e-09 
2.126851604277104e-08 
1.724545527317345e-07 
-7.377862937579022e-08 
2.462331652799302e-07 
1.380921035512887e-05 
1.302736631803785e-05 
5.198891152728151e-08 
1.214505552809578e-12 
5.051773344135088e-08 
2.276334418736063e-07 
4.550521230840976e-08 
-1.779140597470212e-09 
2.377278195255568e-08 
2.002949866403092e-07 
-1.712969325880115e-07 
3.715919192283207e-07 
1.426958628931724e-05 
1.377785698703601e-05 
3.182101610651208e-08 
1.552685201490337e-11 
1.298556326257635e-08 
3.601323864815e-07 
5.809754273021805e-08 
1.722243799946729e-09 
3.007417145988978e-08 
1.553766626844047e-07 
-1.862045769390941e-07 
3.415811835315168e-07 
9.040248792577809e-06 
1.200462528034052e-05 
1.06070872713968e-08 
8.925162807141106e-13 
9.518021360488651e-09 
3.51791048824023e-07 
5.578817142177134e-08 
-5.13368551870932e-09 
2.68456502896038e-08 
1.898143393301191e-07 
-2.192929204849141e-07 
4.091072799895135e-07 
2.287758513463682e-06 
6.621102999262443e-06 
-4.329621141025572e-09 
-1.512494434221008e-11 
1.392316886017097e-08 
5.227482563828075e-07 
7.003663693368594e-08 
-4.839886267571615e-09 
2.601867886619262e-08 
1.394575705232716e-07 
-2.083454888371222e-07 
3.478030593603939e-07 
1.290346471699567e-05 
1.195956780191973e-05 
-9.454411042254072e-09 
-2.851233286025368e-12 
-6.041809260931615e-09 
3.610304764357909e-07 
5.729479168120231e-08 
-3.165267401808232e-09 
2.541464262804982e-08 
1.704343692293566e-07 
-1.704009526293851e-07 
3.408353218587418e-07 
7.906508844646427e-06 
6.689065536343061e-06 
1.89341115162182e-08 
8.447851726358489e-12 
8.668725022977378e-09 
3.683069114466933e-07 
5.783111477827509e-08 
-3.750146152335121e-09 
2.566901119229103e-08 
1.604953859567853e-07 
-2.255340767899676e-07 
3.860294627467531e-07 
3.329647991336209e-06 
6.618955315204834e-06 
-3.693528150538573e-10 
-5.095714657637195e-12 
5.80637068919174e-09 
5.31642390222662e-07 
7.003816706103572e-08 
-5.927393110720919e-09 
2.691661904305464e-08 
1.437482748582952e-07 
-2.051308350242624e-07 
3.488791458000591e-07 
1.169792415809738e-05 
1.183512745124693e-05 
-1.365572766491746e-08 
-1.226861980014908e-12 
-1.220205873685052e-08 
3.248606031931674e-07 
5.447605006542567e-08 
-4.195954881485319e-09 
2.700253584400917e-08 
1.737748059198906e-07 
-1.496752157582581e-07 
3.234500216781487e-07 
1.109545739639383e-05 
1.245938128495932e-05 
1.452116039134844e-08 
6.149591867494194e-12 
6.984136799175013e-09 
2.514317388769863e-07 
4.893234552753431e-08 
-2.266237538620288e-09 
2.986967677104989e-08 
1.098773412440857e-07 
-1.715206227452525e-07 
2.813979639893383e-07 
1.143474693986235e-05 
7.135303726590778e-06 
-9.925634088908317e-09 
2.122220203779386e-12 
-1.247388201552782e-08 
2.662881757405918e-07 
4.885717784317603e-08 
-4.744331094533402e-09 
2.702328444837288e-08 
1.397531254542547e-07 
-1.319606088804123e-07 
2.717137343346671e-07 
8.661169281735943e-06 
1.534585481795185e-05 
1.239261357942935e-08 
-1.1696482164163e-12 
1.377724087103999e-08 
1.897823212687522e-07 
4.173403945755331e-08 
-2.239915001170161e-09 
2.823505483293329e-08 
2.374504644271708e-09 
1.995416908780539e-12 
2.372509427064235e-09 
1.327010150972437e-05 
1.820543375991432e-05 
5.097044642106373e-10 
-4.084178664466187e-14 
5.593854253325333e-10 
3.985706467631605e-11 
6.033753206959178e-10 
1.50277700043612e-08 
4.07779767630795e-08 
6.466398701200758e-09 
1.023806023777948e-09 
5.44259323834263e-09 
6.51682517847541e-06 
1.093514612701351e-05 
3.036046359860383e-09 
6.895352399572838e-14 
2.952605787962695e-09 
1.953618433389871e-10 
1.265998427618656e-09 
7.141124527820068e-09 
2.300517890002643e-08 
2.852776481409927e-06 
0 
2.852776481409927e-06 
1.898699122618883e-05 
0 
2.216183067831818e-07 
-9.630408912860049e-12 
2.334279590051976e-07 
2.941363152574241e-05 
4.219898388204599e-07 
6.222766253692778e-08 
6.907854755749718e-07 
1.1331134781954e-10 
-1.01261356582627e-10 
2.14572742535398e-10 
1.450630620736736e-05 
1.263520266158925e-05 
-1.250798014156528e-15 
-8.896809878206327e-17 
1.064994005723158e-13 
2.742829654767886e-14 
1.588070331141136e-11 
-1.606640507858748e-09 
1.167142096025688e-07 
5.417818979488705e-08 
-6.134094067470668e-08 
1.155191600898867e-07 
5.870496482860216e-06 
2.375267272941269e-06 
1.415814236652074e-11 
-4.057181995106005e-14 
6.305066723396414e-11 
2.608917075124083e-08 
1.548690432003154e-08 
-8.029121148292424e-10 
4.156505395565015e-08 
3.85643371197382e-08 
-4.184491537207603e-08 
8.040924890006411e-08 
6.5832039011338e-06 
1.639284571945822e-06 
2.340038470589619e-12 
3.804689753382111e-15 
-2.141738869866404e-12 
1.099654772217202e-08 
1.004127918188941e-08 
-8.553751865627171e-10 
3.733119558580908e-08 
4.262632697731694e-08 
-4.777596731928449e-08 
9.040229429660144e-08 
1.592574503859041e-05 
1.405038685239792e-05 
-4.131834936339315e-12 
1.010907955087277e-14 
-1.676870541683959e-11 
1.477259086754878e-08 
1.165010656366755e-08 
-2.008280018808492e-09 
4.061383357651715e-08 
4.241477227446375e-08 
-5.248328006140268e-08 
9.489806512856493e-08 
9.576448043028242e-06 
1.208498517183466e-05 
1.127296016959668e-11 
1.301836802871492e-13 
-1.463692213491553e-10 
1.736939332104958e-08 
1.257312995958518e-08 
-2.670715372408227e-09 
3.551642967048912e-08 
5.698884053024118e-08 
-6.143055281592804e-08 
1.184193733699705e-07 
6.775991401567851e-06 
1.228122711224075e-05 
1.58716163915849e-11 
1.048113460255526e-13 
-1.112048495860616e-10 
2.50498046388447e-08 
1.510880396191e-08 
-9.121317367300423e-10 
4.170372478074984e-08 
4.904973874491371e-08 
-5.323194000573198e-08 
1.022816587744469e-07 
4.655165007223508e-06 
1.210240761110132e-05 
6.760876791770999e-12 
1.264393645801143e-13 
-1.463615275679406e-10 
1.847317987097471e-08 
1.301810265319213e-08 
-1.75554241612031e-09 
3.533535104722614e-08 
4.774317555053915e-08 
-4.797303783146982e-08 
9.571622976645762e-08 
3.744774020607925e-06 
1.297724546521802e-05 
-1.020162384147386e-11 
6.259069226766195e-14 
-8.63502207677713e-11 
1.88020832618973e-08 
1.31323944466773e-08 
-8.872953080953557e-10 
3.371981974943543e-08 
6.932612756052358e-08 
-5.673354747069011e-08 
1.260596658302654e-07 
6.487927528029024e-06 
1.511477994947609e-05 
-9.266543332822802e-12 
1.582713606103118e-13 
-2.014581691253334e-10 
2.394605998479945e-08 
1.483731699270107e-08 
-5.312066603027126e-10 
3.816496693052916e-08 
5.532386972086168e-08 
-4.997492364523963e-08 
1.052987653201104e-07 
1.373124545019656e-05 
6.772315998173844e-06 
1.395801497184881e-11 
1.594286460803741e-13 
-1.79382361344051e-10 
1.763453256433589e-08 
1.271671584235018e-08 
2.942077805984249e-10 
3.458460104455822e-08 
4.03817047000374e-08 
-4.596002500994818e-08 
8.63417241007874e-08 
1.073197872020088e-05 
1.089700094545812e-05 
1.561866937337405e-11 
1.07909878298314e-13 
-1.149153362943478e-10 
1.513576443960345e-08 
1.180123081492389e-08 
-1.14413969106282e-09 
3.177492194158085e-08 
4.232592118709736e-08 
-4.846891213269425e-08 
9.079481895279094e-08 
4.176857880452528e-06 
4.817879556396887e-06 
-4.401926482211626e-12 
1.183037599679666e-13 
-1.480139465859057e-10 
1.398520914245948e-08 
1.125195719837371e-08 
-1.728187821867691e-09 
3.6038493602137e-08 
3.967598812009279e-08 
-4.330435130203354e-08 
8.298034503132452e-08 
8.098568826186424e-06 
5.795791153249144e-06 
-1.698987661596807e-12 
8.096704509834431e-14 
-9.936342153585367e-11 
1.177434374039256e-08 
1.040679465340728e-08 
-4.530201582422937e-10 
3.279826524637399e-08 
5.171704433508959e-10 
-4.807372599210531e-10 
9.979077997128921e-10 
1.156672564750914e-05 
1.399663961711615e-05 
-9.563338257644191e-14 
-6.275196782147351e-16 
6.645299511149549e-13 
1.747168932072966e-12 
1.266704990099612e-10 
2.479404661317486e-09 
5.948534635697554e-08 
1.143183925497985e-09 
-1.122040513431743e-09 
2.265224438929729e-09 
9.472754335571476e-06 
6.559238169986302e-06 
6.446738425980099e-13 
-6.133442183227076e-16 
1.377195429969961e-12 
9.592839587414804e-12 
2.873842998782813e-10 
3.167695034902643e-10 
4.301969709518103e-08 
7.576017587770725e-07 
-8.165982304281909e-07 
1.574199984773804e-06 
1.387750506703672e-05 
1.900539312285257e-05 
1.471425242889216e-10 
-8.5566560348185e-14 
2.511118166182976e-10 
1.76403149824832e-06 
1.099007129340964e-07 
-1.360847021046274e-09 
5.700609464704852e-07 
